<?xml version="1.0"?>
<opencv_storage>
<cascade>
  <stageType>BOOST</stageType>
  <featureType>HAAR</featureType>
  <height>25</height>
  <width>25</width>
  <stageParams>
    <boostType>GAB</boostType>
    <minHitRate>9.7000002861022949e-01</minHitRate>
    <maxFalseAlarm>5.0000000000000000e-01</maxFalseAlarm>
    <weightTrimRate>9.4999998807907104e-01</weightTrimRate>
    <maxDepth>1</maxDepth>
    <maxWeakCount>100</maxWeakCount></stageParams>
  <featureParams>
    <maxCatCount>0</maxCatCount>
    <featSize>1</featSize>
    <mode>BASIC</mode></featureParams>
  <stageNum>14</stageNum>
  <stages>
    <!-- stage 0 -->
    <_>
      <maxWeakCount>3</maxWeakCount>
      <stageThreshold>-1.4354428052902222e+00</stageThreshold>
      <weakClassifiers>
        <_>
          <internalNodes>
            0 -1 21 2.2685440257191658e-02</internalNodes>
          <leafValues>
            -9.4132030010223389e-01 4.5454546809196472e-01</leafValues></_>
        <_>
          <internalNodes>
            0 -1 31 -2.3448701947927475e-02</internalNodes>
          <leafValues>
            6.4283055067062378e-01 -7.9383331537246704e-01</leafValues></_>
        <_>
          <internalNodes>
            0 -1 27 2.0827644038945436e-04</internalNodes>
          <leafValues>
            -9.4959247112274170e-01 2.9971078038215637e-01</leafValues></_></weakClassifiers></_>
    <!-- stage 1 -->
    <_>
      <maxWeakCount>3</maxWeakCount>
      <stageThreshold>-1.3048447370529175e+00</stageThreshold>
      <weakClassifiers>
        <_>
          <internalNodes>
            0 -1 24 4.5219842344522476e-02</internalNodes>
          <leafValues>
            -9.4567900896072388e-01 2.0000000298023224e-01</leafValues></_>
        <_>
          <internalNodes>
            0 -1 12 5.0772938877344131e-02</internalNodes>
          <leafValues>
            -7.8701323270797729e-01 5.9989762306213379e-01</leafValues></_>
        <_>
          <internalNodes>
            0 -1 26 -1.4588041231036186e-02</internalNodes>
          <leafValues>
            6.2845969200134277e-01 -7.1783143281936646e-01</leafValues></_></weakClassifiers></_>
    <!-- stage 2 -->
    <_>
      <maxWeakCount>2</maxWeakCount>
      <stageThreshold>-1.1419826745986938e+00</stageThreshold>
      <weakClassifiers>
        <_>
          <internalNodes>
            0 -1 1 3.5147839784622192e-01</internalNodes>
          <leafValues>
            -9.3220341205596924e-01 7.1428573131561279e-01</leafValues></_>
        <_>
          <internalNodes>
            0 -1 38 2.5345527319586836e-05</internalNodes>
          <leafValues>
            -9.7173035144805908e-01 -2.0977927744388580e-01</leafValues></_></weakClassifiers></_>
    <!-- stage 3 -->
    <_>
      <maxWeakCount>4</maxWeakCount>
      <stageThreshold>-1.8661822080612183e+00</stageThreshold>
      <weakClassifiers>
        <_>
          <internalNodes>
            0 -1 9 5.4732773452997208e-02</internalNodes>
          <leafValues>
            -9.2289155721664429e-01 6.0000002384185791e-01</leafValues></_>
        <_>
          <internalNodes>
            0 -1 15 -1.0463857650756836e-01</internalNodes>
          <leafValues>
            3.9128798246383667e-01 -7.2504049539566040e-01</leafValues></_>
        <_>
          <internalNodes>
            0 -1 13 5.6745307520031929e-03</internalNodes>
          <leafValues>
            -6.3881897926330566e-01 5.6005084514617920e-01</leafValues></_>
        <_>
          <internalNodes>
            0 -1 42 -5.1185055781388655e-05</internalNodes>
          <leafValues>
            4.2056879401206970e-01 -8.6646050214767456e-01</leafValues></_></weakClassifiers></_>
    <!-- stage 4 -->
    <_>
      <maxWeakCount>3</maxWeakCount>
      <stageThreshold>-1.4177013635635376e+00</stageThreshold>
      <weakClassifiers>
        <_>
          <internalNodes>
            0 -1 8 -1.8367812037467957e-02</internalNodes>
          <leafValues>
            1. -9.2307692766189575e-01</leafValues></_>
        <_>
          <internalNodes>
            0 -1 30 2.4459585547447205e-03</internalNodes>
          <leafValues>
            -7.6409018039703369e-01 4.1408902406692505e-01</leafValues></_>
        <_>
          <internalNodes>
            0 -1 33 -1.2495717965066433e-03</internalNodes>
          <leafValues>
            2.9077905416488647e-01 -9.0871345996856689e-01</leafValues></_></weakClassifiers></_>
    <!-- stage 5 -->
    <_>
      <maxWeakCount>3</maxWeakCount>
      <stageThreshold>-1.3145420551300049e+00</stageThreshold>
      <weakClassifiers>
        <_>
          <internalNodes>
            0 -1 28 -1.0648536495864391e-02</internalNodes>
          <leafValues>
            5.0000000000000000e-01 -9.3203884363174438e-01</leafValues></_>
        <_>
          <internalNodes>
            0 -1 20 -1.0913038626313210e-02</internalNodes>
          <leafValues>
            5.5734324455261230e-01 -7.3327481746673584e-01</leafValues></_>
        <_>
          <internalNodes>
            0 -1 36 1.3698331080377102e-02</internalNodes>
          <leafValues>
            -7.9100406169891357e-01 3.5077157616615295e-01</leafValues></_></weakClassifiers></_>
    <!-- stage 6 -->
    <_>
      <maxWeakCount>5</maxWeakCount>
      <stageThreshold>-1.6795686483383179e+00</stageThreshold>
      <weakClassifiers>
        <_>
          <internalNodes>
            0 -1 44 -7.5302697718143463e-02</internalNodes>
          <leafValues>
            5.0000000000000000e-01 -9.3203884363174438e-01</leafValues></_>
        <_>
          <internalNodes>
            0 -1 42 -1.3498181942850351e-04</internalNodes>
          <leafValues>
            -8.1872218847274780e-01 4.8861962556838989e-01</leafValues></_>
        <_>
          <internalNodes>
            0 -1 17 -2.4253210425376892e-01</internalNodes>
          <leafValues>
            7.8721201419830322e-01 -5.6621748208999634e-01</leafValues></_>
        <_>
          <internalNodes>
            0 -1 18 5.2248599240556359e-04</internalNodes>
          <leafValues>
            3.4447675943374634e-01 -9.4858169555664063e-01</leafValues></_>
        <_>
          <internalNodes>
            0 -1 43 3.3740140497684479e-04</internalNodes>
          <leafValues>
            2.9293310642242432e-01 -9.6285468339920044e-01</leafValues></_></weakClassifiers></_>
    <!-- stage 7 -->
    <_>
      <maxWeakCount>4</maxWeakCount>
      <stageThreshold>-1.5571179389953613e+00</stageThreshold>
      <weakClassifiers>
        <_>
          <internalNodes>
            0 -1 35 -1.0759136080741882e-01</internalNodes>
          <leafValues>
            6.0000002384185791e-01 -9.2289155721664429e-01</leafValues></_>
        <_>
          <internalNodes>
            0 -1 42 -2.0038973889313638e-04</internalNodes>
          <leafValues>
            -7.9130047559738159e-01 1.4192582108080387e-02</leafValues></_>
        <_>
          <internalNodes>
            0 -1 16 1.4634078979725018e-05</internalNodes>
          <leafValues>
            -8.8684499263763428e-01 2.2159864008426666e-01</leafValues></_>
        <_>
          <internalNodes>
            0 -1 0 4.9670354928821325e-04</internalNodes>
          <leafValues>
            2.3842608928680420e-01 -9.7485107183456421e-01</leafValues></_></weakClassifiers></_>
    <!-- stage 8 -->
    <_>
      <maxWeakCount>4</maxWeakCount>
      <stageThreshold>-1.5234292745590210e+00</stageThreshold>
      <weakClassifiers>
        <_>
          <internalNodes>
            0 -1 40 -3.2409854233264923e-02</internalNodes>
          <leafValues>
            6.0000002384185791e-01 -9.2289155721664429e-01</leafValues></_>
        <_>
          <internalNodes>
            0 -1 29 -1.4483421109616756e-03</internalNodes>
          <leafValues>
            -1.5351304411888123e-01 -8.9519792795181274e-01</leafValues></_>
        <_>
          <internalNodes>
            0 -1 34 2.1038172417320311e-04</internalNodes>
          <leafValues>
            1.1690279096364975e-01 -1.</leafValues></_>
        <_>
          <internalNodes>
            0 -1 32 2.5344709865748882e-04</internalNodes>
          <leafValues>
            1.7775747179985046e-01 -1.</leafValues></_></weakClassifiers></_>
    <!-- stage 9 -->
    <_>
      <maxWeakCount>3</maxWeakCount>
      <stageThreshold>-1.4362875223159790e+00</stageThreshold>
      <weakClassifiers>
        <_>
          <internalNodes>
            0 -1 14 -2.6275891065597534e-01</internalNodes>
          <leafValues>
            6.0000002384185791e-01 -9.2289155721664429e-01</leafValues></_>
        <_>
          <internalNodes>
            0 -1 19 -1.2152963131666183e-01</internalNodes>
          <leafValues>
            4.0738925337791443e-01 -7.6781058311462402e-01</leafValues></_>
        <_>
          <internalNodes>
            0 -1 3 1.1162314876855817e-05</internalNodes>
          <leafValues>
            -7.9273527860641479e-01 2.5441458821296692e-01</leafValues></_></weakClassifiers></_>
    <!-- stage 10 -->
    <_>
      <maxWeakCount>3</maxWeakCount>
      <stageThreshold>-1.2495114803314209e+00</stageThreshold>
      <weakClassifiers>
        <_>
          <internalNodes>
            0 -1 5 -5.2995808422565460e-02</internalNodes>
          <leafValues>
            1. -9.1846525669097900e-01</leafValues></_>
        <_>
          <internalNodes>
            0 -1 22 7.3355473577976227e-02</internalNodes>
          <leafValues>
            -7.1836566925048828e-01 4.4208040833473206e-01</leafValues></_>
        <_>
          <internalNodes>
            0 -1 37 5.0057750195264816e-03</internalNodes>
          <leafValues>
            4.2563402652740479e-01 -7.7312666177749634e-01</leafValues></_></weakClassifiers></_>
    <!-- stage 11 -->
    <_>
      <maxWeakCount>4</maxWeakCount>
      <stageThreshold>-1.9193179607391357e+00</stageThreshold>
      <weakClassifiers>
        <_>
          <internalNodes>
            0 -1 23 -1.0257191956043243e-01</internalNodes>
          <leafValues>
            6.0000002384185791e-01 -9.2289155721664429e-01</leafValues></_>
        <_>
          <internalNodes>
            0 -1 6 -7.3531791567802429e-02</internalNodes>
          <leafValues>
            5.0060492008924484e-02 -8.3762741088867188e-01</leafValues></_>
        <_>
          <internalNodes>
            0 -1 7 -2.2222310304641724e-02</internalNodes>
          <leafValues>
            6.6199856996536255e-01 -5.1639938354492188e-01</leafValues></_>
        <_>
          <internalNodes>
            0 -1 41 -6.1419833218678832e-04</internalNodes>
          <leafValues>
            -8.4774851799011230e-01 3.5760039091110229e-01</leafValues></_></weakClassifiers></_>
    <!-- stage 12 -->
    <_>
      <maxWeakCount>4</maxWeakCount>
      <stageThreshold>-1.5229722261428833e+00</stageThreshold>
      <weakClassifiers>
        <_>
          <internalNodes>
            0 -1 10 7.4639551341533661e-02</internalNodes>
          <leafValues>
            -9.1846525669097900e-01 1.</leafValues></_>
        <_>
          <internalNodes>
            0 -1 2 -4.2533077299594879e-02</internalNodes>
          <leafValues>
            5.5652622133493423e-02 -8.5737961530685425e-01</leafValues></_>
        <_>
          <internalNodes>
            0 -1 4 -2.2215812932699919e-03</internalNodes>
          <leafValues>
            -8.8116103410720825e-01 2.1247118711471558e-01</leafValues></_>
        <_>
          <internalNodes>
            0 -1 11 -1.7030097078531981e-03</internalNodes>
          <leafValues>
            -1. 2.2100144624710083e-01</leafValues></_></weakClassifiers></_>
    <!-- stage 13 -->
    <_>
      <maxWeakCount>3</maxWeakCount>
      <stageThreshold>-1.3340214490890503e+00</stageThreshold>
      <weakClassifiers>
        <_>
          <internalNodes>
            0 -1 25 -1.1943290010094643e-02</internalNodes>
          <leafValues>
            6.0000002384185791e-01 -9.2289155721664429e-01</leafValues></_>
        <_>
          <internalNodes>
            0 -1 39 9.4823725521564484e-03</internalNodes>
          <leafValues>
            -6.8125343322753906e-01 6.3791811466217041e-01</leafValues></_>
        <_>
          <internalNodes>
            0 -1 45 1.3334264804143459e-04</internalNodes>
          <leafValues>
            -8.5909926891326904e-01 2.7012360095977783e-01</leafValues></_></weakClassifiers></_></stages>
  <features>
    <_>
      <rects>
        <_>
          0 1 15 3 -1.</_>
        <_>
          0 2 15 1 3.</_></rects>
      <tilted>0</tilted></_>
    <_>
      <rects>
        <_>
          0 1 20 24 -1.</_>
        <_>
          0 9 20 8 3.</_></rects>
      <tilted>0</tilted></_>
    <_>
      <rects>
        <_>
          0 15 22 8 -1.</_>
        <_>
          0 19 22 4 2.</_></rects>
      <tilted>0</tilted></_>
    <_>
      <rects>
        <_>
          0 21 1 3 -1.</_>
        <_>
          0 22 1 1 3.</_></rects>
      <tilted>0</tilted></_>
    <_>
      <rects>
        <_>
          1 1 15 3 -1.</_>
        <_>
          1 2 15 1 3.</_></rects>
      <tilted>0</tilted></_>
    <_>
      <rects>
        <_>
          1 13 8 4 -1.</_>
        <_>
          5 13 4 4 2.</_></rects>
      <tilted>0</tilted></_>
    <_>
      <rects>
        <_>
          1 13 21 10 -1.</_>
        <_>
          1 18 21 5 2.</_></rects>
      <tilted>0</tilted></_>
    <_>
      <rects>
        <_>
          1 17 12 2 -1.</_>
        <_>
          5 17 4 2 3.</_></rects>
      <tilted>0</tilted></_>
    <_>
      <rects>
        <_>
          2 16 20 2 -1.</_>
        <_>
          2 17 20 1 2.</_></rects>
      <tilted>0</tilted></_>
    <_>
      <rects>
        <_>
          2 17 14 2 -1.</_>
        <_>
          9 17 7 2 2.</_></rects>
      <tilted>0</tilted></_>
    <_>
      <rects>
        <_>
          3 0 21 2 -1.</_>
        <_>
          10 0 7 2 3.</_></rects>
      <tilted>0</tilted></_>
    <_>
      <rects>
        <_>
          3 3 2 12 -1.</_>
        <_>
          3 7 2 4 3.</_></rects>
      <tilted>0</tilted></_>
    <_>
      <rects>
        <_>
          3 6 8 16 -1.</_>
        <_>
          3 6 4 8 2.</_>
        <_>
          7 14 4 8 2.</_></rects>
      <tilted>0</tilted></_>
    <_>
      <rects>
        <_>
          3 11 20 2 -1.</_>
        <_>
          3 11 10 1 2.</_>
        <_>
          13 12 10 1 2.</_></rects>
      <tilted>0</tilted></_>
    <_>
      <rects>
        <_>
          4 2 18 10 -1.</_>
        <_>
          13 2 9 10 2.</_></rects>
      <tilted>0</tilted></_>
    <_>
      <rects>
        <_>
          4 2 20 16 -1.</_>
        <_>
          4 2 10 8 2.</_>
        <_>
          14 10 10 8 2.</_></rects>
      <tilted>0</tilted></_>
    <_>
      <rects>
        <_>
          4 6 3 1 -1.</_>
        <_>
          5 6 1 1 3.</_></rects>
      <tilted>0</tilted></_>
    <_>
      <rects>
        <_>
          5 2 18 19 -1.</_>
        <_>
          14 2 9 19 2.</_></rects>
      <tilted>0</tilted></_>
    <_>
      <rects>
        <_>
          6 0 10 3 -1.</_>
        <_>
          6 1 10 1 3.</_></rects>
      <tilted>0</tilted></_>
    <_>
      <rects>
        <_>
          6 3 18 18 -1.</_>
        <_>
          6 3 9 9 2.</_>
        <_>
          15 12 9 9 2.</_></rects>
      <tilted>0</tilted></_>
    <_>
      <rects>
        <_>
          6 5 2 6 -1.</_>
        <_>
          6 7 2 2 3.</_></rects>
      <tilted>0</tilted></_>
    <_>
      <rects>
        <_>
          6 10 12 4 -1.</_>
        <_>
          6 10 6 2 2.</_>
        <_>
          12 12 6 2 2.</_></rects>
      <tilted>0</tilted></_>
    <_>
      <rects>
        <_>
          7 6 18 5 -1.</_>
        <_>
          13 6 6 5 3.</_></rects>
      <tilted>0</tilted></_>
    <_>
      <rects>
        <_>
          7 8 15 5 -1.</_>
        <_>
          12 8 5 5 3.</_></rects>
      <tilted>0</tilted></_>
    <_>
      <rects>
        <_>
          9 13 12 5 -1.</_>
        <_>
          13 13 4 5 3.</_></rects>
      <tilted>0</tilted></_>
    <_>
      <rects>
        <_>
          9 16 10 2 -1.</_>
        <_>
          9 16 5 1 2.</_>
        <_>
          14 17 5 1 2.</_></rects>
      <tilted>0</tilted></_>
    <_>
      <rects>
        <_>
          10 5 2 10 -1.</_>
        <_>
          10 10 2 5 2.</_></rects>
      <tilted>0</tilted></_>
    <_>
      <rects>
        <_>
          10 7 2 3 -1.</_>
        <_>
          10 8 2 1 3.</_></rects>
      <tilted>0</tilted></_>
    <_>
      <rects>
        <_>
          10 11 2 4 -1.</_>
        <_>
          10 13 2 2 2.</_></rects>
      <tilted>0</tilted></_>
    <_>
      <rects>
        <_>
          10 13 10 3 -1.</_>
        <_>
          10 14 10 1 3.</_></rects>
      <tilted>0</tilted></_>
    <_>
      <rects>
        <_>
          11 9 3 2 -1.</_>
        <_>
          12 9 1 2 3.</_></rects>
      <tilted>0</tilted></_>
    <_>
      <rects>
        <_>
          11 9 10 4 -1.</_>
        <_>
          11 11 10 2 2.</_></rects>
      <tilted>0</tilted></_>
    <_>
      <rects>
        <_>
          11 22 2 3 -1.</_>
        <_>
          11 23 2 1 3.</_></rects>
      <tilted>0</tilted></_>
    <_>
      <rects>
        <_>
          12 10 12 3 -1.</_>
        <_>
          12 11 12 1 3.</_></rects>
      <tilted>0</tilted></_>
    <_>
      <rects>
        <_>
          13 22 3 2 -1.</_>
        <_>
          14 22 1 2 3.</_></rects>
      <tilted>0</tilted></_>
    <_>
      <rects>
        <_>
          14 7 8 12 -1.</_>
        <_>
          14 13 8 6 2.</_></rects>
      <tilted>0</tilted></_>
    <_>
      <rects>
        <_>
          14 10 10 12 -1.</_>
        <_>
          14 14 10 4 3.</_></rects>
      <tilted>0</tilted></_>
    <_>
      <rects>
        <_>
          15 11 6 9 -1.</_>
        <_>
          15 14 6 3 3.</_></rects>
      <tilted>0</tilted></_>
    <_>
      <rects>
        <_>
          16 18 3 1 -1.</_>
        <_>
          17 18 1 1 3.</_></rects>
      <tilted>0</tilted></_>
    <_>
      <rects>
        <_>
          17 8 8 1 -1.</_>
        <_>
          21 8 4 1 2.</_></rects>
      <tilted>0</tilted></_>
    <_>
      <rects>
        <_>
          17 10 4 8 -1.</_>
        <_>
          17 14 4 4 2.</_></rects>
      <tilted>0</tilted></_>
    <_>
      <rects>
        <_>
          17 17 1 4 -1.</_>
        <_>
          17 19 1 2 2.</_></rects>
      <tilted>0</tilted></_>
    <_>
      <rects>
        <_>
          21 2 2 1 -1.</_>
        <_>
          22 2 1 1 2.</_></rects>
      <tilted>0</tilted></_>
    <_>
      <rects>
        <_>
          21 22 4 3 -1.</_>
        <_>
          21 23 4 1 3.</_></rects>
      <tilted>0</tilted></_>
    <_>
      <rects>
        <_>
          22 1 2 24 -1.</_>
        <_>
          22 13 2 12 2.</_></rects>
      <tilted>0</tilted></_>
    <_>
      <rects>
        <_>
          22 10 2 12 -1.</_>
        <_>
          22 10 1 6 2.</_>
        <_>
          23 16 1 6 2.</_></rects>
      <tilted>0</tilted></_></features></cascade>
</opencv_storage>
